{"w1":[[0.21607634177880755,-0.38348630674408923,-0.07208999184658751,0.2928677115160099,-0.30985936074939674,0.2842398665678047,-0.35308167045077427,0.4258948423863331,-0.193078848524965,0.2454965772551077,-0.44255893855224715,-0.2189057428610795,0.14033912711165614,0.004365332297675196,-0.35610315198573517,-0.13167725983512354,0.1036882699590933,-0.041441028468398144,-0.031196736204583433,-0.34313865266849464,0.26323260279968963,0.3503416757965169,-0.15117166180007188,0.006057652532035718],[0.05795561490194814,-0.12219094621177647,-0.18317559487973087,0.034801901078390075,-0.34963546763392517,-0.4178099330812984,0.36383224130258895,-0.2672893255927193,-0.07625557169958484,0.44672506091083053,-0.25826621911000985,0.02972819646474818,0.40970929985835997,0.3586693425080739,-0.2088898127374705,0.030895953285653376,0.30526022419144283,-0.16725243133769255,0.31972046876326204,-0.19872953708909336,0.25315615146755593,-0.1096538813526422,0.22958640942542843,0.38539745783964463],[-0.04072566525064758,-0.14831855912998435,0.3629632323612896,-0.4191012674753893,0.2792314797992731,-0.4295824208922568,0.03734147972281789,-0.24101257996735512,0.008392504805669887,0.28449777337373233,0.20483510241974728,0.44280110916988635,-0.0010375843045039802,0.21336569766081084,-0.30933857340787657,0.10082989911061305,0.39339152746688344,-0.19473844389067382,0.21640682263605412,-0.42293220951905824,-0.35715518218275977,-0.09402481666802487,0.4193897087257938,-0.36879700331337517],[-0.20483933651194094,0.3966992454879801,0.10598169458462507,-0.35365842473547676,-0.2709792075970654,0.29028907475967575,0.2618290476522816,-0.4341633274951164,-0.3533288990460278,-0.2062563636696723,0.29728038485191066,-0.2607447092981602,-0.09831307467466104,0.09620207600964932,0.009058369522608701,-0.16008267930910733,0.44794432783692173,0.051153618178432225,-0.2747962862769782,0.2541329627798405,-0.03303013968034065,-0.4131948282643862,-0.21324597035127227,-0.04272577429328522],[0.29110383953520796,0.03407338483739295,0.3658221486621187,-0.20953051367469017,-0.28093679497287666,-0.3727694851522756,-0.10902987939400646,-0.388971811529882,0.0821401869161491,-0.21026618403702743,0.44005859100943784,-0.1966797591179784,-0.024848981433024164,-0.022077330491447358,0.22961623116134433,0.019383875087441993,0.4464529992547341,0.1000643757161015,-0.3651160061042901,-0.4107636613487557,0.06917871459882008,-0.38709333981969396,-0.08760015673324233,-0.3221169850548904],[0.2275580473986338,0.06187686856719665,0.1692758894583676,0.4267268873212743,0.16224397934420268,-0.21619003026025893,0.22150239225775295,0.07706585587270638,-0.16043402642317234,0.23471587604799424,0.026914748552371748,-0.21559338415754611,-0.23675108044335502,0.055050510130240586,0.10836481449296116,0.14364994671195747,0.2831582147282461,-0.3112226865792764,0.3186213492216666,-0.3403664667683188,0.3740709967332805,0.0035265436206827873,0.35730905385426015,-0.40218902146079927],[0.0033803012524003862,0.05986655797569256,-0.3411522644935758,-0.06479080330391299,0.38840302781463837,-0.3215556170041964,-0.39863172057739577,0.33548189479515717,0.027603813008681755,-0.047432858410866176,0.13141147668247868,-0.40649638101276653,-0.3480634795698279,-0.312635671125463,-0.3927019822593138,-0.016748471343453277,0.29883425106454525,-0.38791487324560875,-0.17280925386257878,-0.07171663683757289,-0.07165276998421177,-0.24859420520115236,-0.29264648725802545,-0.3083811378273822],[0.02109422468624871,0.06732802224942135,0.31010507467581194,-0.4471688959376479,0.15465670817502541,0.1527320225715812,0.3052032437190064,0.0483225243347988,-0.09064636842849723,0.1974764957523803,0.4375667922338266,-0.08652527761223609,-0.05758398353063967,-0.07420592836933793,-0.4279582791597932,-0.14286019784922246,-0.288319336562563,-0.04637297915905947,0.33284566528964205,-0.22103263200770015,0.060188085039226284,-0.2741405475604552,0.15680716746828693,-0.21519859018590068],[0.019599334606391496,0.06143514283280638,-0.39698237672782855,-0.000154765673505608,0.42774017710835327,-0.07463974040801986,0.3916676387030748,-0.3807754270397709,-0.15006030590520822,-0.4196645815318334,0.08273115728188714,-0.29042886543711577,-0.3604921494361406,-0.20724117418903917,0.016591120363591474,0.37227865126696996,0.08201693172741216,0.379128600871627,-0.36662062817413243,0.34438335917329826,0.20015483436291107,-0.06175731069652102,-0.05330920893666189,-0.35644424331003394],[-0.4320944122933725,-0.1100165786989237,-0.1923739537394795,0.06956894107906919,0.3345447259493085,0.21512831312065828,-0.3175925217656186,0.10069680704473286,0.2442298937276064,-0.1416249101413996,0.0012425347209500616,-0.3225737094908254,-0.3040210004253822,-0.007382998200819202,-0.3165771220243187,-0.14104350341258395,0.3765955820977979,0.1873963210004149,-0.0015739966758701485,-0.3333365302059974,-0.12775129669607851,-0.3526446697625943,-0.4225631665596666,-0.4226279473199043],[0.0831056868271844,0.37436034811471475,0.21701027824274208,0.2134073619323317,0.02494375687919046,0.30982714952606333,0.3734714888687449,-0.24063448126034928,-0.18739506799756783,0.30824929565715137,-0.12895370173282572,0.25413213501451537,-0.3914983416318137,0.39106269761687146,0.0919428872957269,-0.23819110937201912,-0.02183461603890464,-0.08535569548621424,-0.31093175696078107,-0.19254186526741252,0.06937036382223596,0.3077810803326429,0.30944958259678973,0.43040019398031293],[0.1000059575017076,0.2809810680708324,0.11886460694804556,0.11806936760804092,0.3792242999315931,0.17823962247866804,-0.3601124873928711,-0.005093984666018514,0.2910472945910442,0.13416200050342014,0.28804304614750437,-0.40314535473589785,-0.258089489107806,-0.4135354789003031,0.11674907910528419,-0.13892366926802424,0.052474288535813686,0.0021078012308862527,0.3616865727777622,0.15571692972443998,-0.3845135998853948,-0.03585725223456393,0.06165971752125188,-0.35843306245296847],[-0.08880951023675153,-0.2722304394781531,-0.33016718821891117,-0.4320082633807033,0.023017438140595915,0.3408253420104302,0.02565557338475628,-0.33796527490703737,0.30113484982648514,0.285671897800421,0.10875973712682026,0.06714534909478971,-0.2639957095409045,-0.35968472195600043,-0.19646938186779153,0.36844507891946704,-0.0088490789043135,-0.014316249929356673,0.01851600956706534,-0.24343403679522455,-0.09343183291348396,-0.4149056968090008,0.42669819464572356,-0.1272777280137234],[0.3141573452834564,0.22311659471306486,-0.39311035697028274,-0.07147955536202062,-0.16226653027842985,-0.007520700411259895,0.36632464503418305,-0.2571424499406931,0.437082278836283,-0.2043000755900721,0.26963014752655,-0.32379068370282765,0.12617857694422127,-0.40799064849197747,0.018548229990847178,0.3953358308623138,0.41714180813505664,-0.04715790909212956,0.18774685661037438,-0.26343608573642996,0.11265486729425903,-0.42576845544354003,0.14685359263967257,0.3328413073155389],[-0.14327710561265122,0.14899058379269264,-0.26300454429801906,-0.133976741584047,0.16644646213026135,0.3019861832035531,0.05931449009513017,0.13581670763815054,-0.11108099572156789,0.27431791316139426,0.33868500407397734,0.0936234709850396,0.43239104657295685,0.16874828987565707,0.40215375508123546,-0.2416260185353167,0.44073485951157637,0.23862452118955843,0.43670527385693275,0.13160440611882224,-0.324267936155502,-0.14250862652988872,-0.28653541910316566,0.3477342188401963],[-0.06983493933312275,0.41155041569636525,-0.00876381753696478,-0.2314910901877738,0.035469158998603235,-0.16296486575156452,0.17570542218963967,0.0062492901975929275,-0.15193188727353119,0.23876904877433844,-0.025634002267179313,-0.20813919584888937,-0.25996779901615813,-0.08512266709549295,0.23313487909472316,-0.3491716038399318,0.0028487363320891745,-0.34791959748326917,0.10399692487990252,-0.22440138906458743,0.33731761903654844,0.3987714134618045,-0.4141373327711335,0.3964374015286012]],"b1":[0.012770436910068383,-0.05786244626651751,0.0018392890036921016,-0.016804364013478335,-0.029562203219393266,-0.058129037789331046,-0.036389156127552266,0.10267898110323585,0.14725721927752602,-0.04779004608390096,0.012167637800735065,0.03085086961291381,-0.11761486456744023,-0.10803918550882372,-0.09946071358717745,-0.09688834006665274],"wTorque":[[0.03344385195057939,0.2502818374105661,-0.026467265783169908,-0.2882609327610405,-0.15421800226050833,0.12562549754760471,-0.32119508501945715,-0.2801075669065971,0.14306085673413904,-0.08237837557990806,0.03913202531112415,-0.13906299986021883,-0.24914787530503518,-0.23200517838677295,0.18967587781727085,0.098306287797952],[-0.07315889626034322,-0.36904326114814207,0.23482510130906298,-0.18722789697850079,-0.1774519159894886,-0.37217539014435563,0.1822116814086221,0.1010876698853323,0.11888412230588807,-0.39466704795089746,-0.06774228345401492,0.24591760860855208,-0.1968303036357957,-0.17770551321789357,-0.27212387005162675,-0.08351731851119346],[0.09568218117976683,-0.33677996291382406,0.08054828009358837,-0.0006267585424368071,0.12557404788980414,-0.39478997155252155,0.19520054678002474,0.16732732263350397,0.09476078401300393,-0.32589483672302083,0.2655024850715613,-0.1897825612121103,-0.24813885528248855,0.1126592549498442,-0.1438676271588277,0.17329693360707807]],"wAttach":[-0.29234229085259883,0.04970250734046082,0.17664024993003125,0.24656454004931594,0.08489618729240733,0.38593594544922405,-0.3831450902772245,-0.30875977960832157,0.03682788856884478,-0.21705476782285688,-0.25105677877833404,-0.04355390076198658,-0.3680042769515074,0.21182450351937235,0.04344120103050289,-0.12512902366030523],"wDetach":[-0.3996829465202997,0.11321769285059916,0.1386473788868158,-0.07746430774457186,-0.27658552011931187,-0.06988751739345814,-0.3581778832873461,0.048218249084921776,0.2651930588535364,0.1591173473494559,0.30052890665794363,0.2724075594703741,0.3855223623553037,-0.05869976208425844,0.09653894366486869,-0.1737668166049992],"wMsg":[[0.007504483653576698,0.3355343553221246,0.052378539915662256,-0.11196468483030912,0.06406498307478614,0.21083471608144463,-0.12422504171190667,0.2643561070988653,-0.32668181707376787,-0.266796817937211,-0.017247800043469395,0.17749333734373066,-0.04627692056928936,0.23781924944851196,0.03471196655154926,-0.26988443979644217],[0.2883044914771744,-0.20654375693266047,0.007238690279154979,0.3015880535553151,0.0983497157892998,-0.02600399104558164,0.23882708933451793,0.20788806452110292,0.28268052584317044,0.1696172371848661,-0.25964665252904523,0.30687077469219726,0.04298504504404263,-0.16023515513261372,0.2843823136448918,0.03829974999389378],[0.15267067456370567,-0.3066121244817623,-0.317566036872995,0.12592454556925076,0.08766476515775139,-0.3213305378769291,-0.10989647332025924,-0.09087096979419584,-0.007375297744147246,-0.12179959998684352,0.23287536331263253,-0.2955082298532943,0.3022526592010763,-0.02278727201610309,0.10491394994733128,0.28003167386959826],[-0.27713307213125515,-0.21988274419418302,0.2590059112651943,-0.22076707778614943,0.33574942350952597,0.24731303535681945,0.1350981938645418,-0.2961381222288764,-0.06617743647511815,0.2250572769982682,0.23691518028499556,-0.29383491273110846,0.25638386711725614,-0.048290751281092524,-0.19792265610349202,0.08505748189727455],[-0.15307854552956995,-0.043972325909999194,0.2640684408303059,-0.12693330088259244,-0.09974986641755094,0.16799896393567904,-0.07955401235740282,-0.11971341650460089,-0.11563161181547911,0.22041494279401375,-0.20551837971797793,0.1688804769197304,-0.09990012859707348,0.311068879987215,-0.22575723962982008,-0.23784171813113061],[0.2796549254315323,0.2350987936806632,-0.3398116883850889,-0.036968940987571836,-0.25060234971388123,-0.02732983989990316,-0.27021681576425177,-0.23271283679041516,-0.1943109376656139,0.12467628542872261,-0.037049467998440375,0.03495123059910838,0.3283263054487179,0.26648432571528247,-0.12291968020654166,-0.20796094586839897],[0.09479829581578086,0.10018304033001185,0.2558863075457339,0.08789405585848725,0.019278426341043084,-0.02908175205084262,0.14599067488125,-0.07977855581721087,0.0879798719640803,-0.34135332969035515,0.3096191278465994,-0.012791370723425642,0.23607998997031243,-0.3493387292641273,0.2574094974115724,-0.048905849685252176],[0.2896841324292836,0.03808549387103994,0.3049229101234232,0.10378179472099873,0.07006745053440681,-0.3088700900538242,-0.11400983395578805,-0.014443351325098773,0.26227150130507654,0.0038084386536866074,0.19528728342038448,0.1581680587518349,-0.3087519847893418,-0.045458200556458904,-0.13597427145796245,-0.07259076840637135]]}
